{"learner":{"attributes":{},"feature_names":["avg_days","is_inpatient","patient_count","family_history"],"feature_types":["int","int","int","int"],"gradient_booster":{"model":{"gbtree_model_param":{"num_parallel_tree":"1","num_trees":"30"},"iteration_indptr":[0,1,2,3,4,5,6,7,8,9,10,11,12,13,14,15,16,17,18,19,20,21,22,23,24,25,26,27,28,29,30],"tree_info":[0,0,0,0,0,0,0,0,0,0,0,0,0,0,0,0,0,0,0,0,0,0,0,0,0,0,0,0,0,0],"trees":[{"base_weights":[1.7857144E-2,-1.8749998E5,1.8750002E5,-6.6666664E4,-1.2499997E4,2.5000032E3,7.3333336E4],"categories":[],"categories_nodes":[],"categories_segments":[],"categories_sizes":[],"default_left":[0,0,0,0,0,0,0],"id":0,"left_children":[1,3,5,-1,-1,-1,-1],"loss_changes":[2.8124997E11,1.0995384E10,3.8773146E10,0E0,0E0,0E0,0E0],"parents":[2147483647,0,0,1,1,2,2],"right_children":[2,4,6,-1,-1,-1,-1],"split_conditions":[1E0,2.1E1,2.1E1,-6.6666664E4,-1.2499997E4,2.5000032E3,7.3333336E4],"split_indices":[1,0,0,0,0,0,0],"split_type":[0,0,0,0,0,0,0],"sum_hessian":[6E0,3E0,3E0,2E0,1E0,1E0,2E0],"tree_param":{"num_deleted":"0","num_feature":"4","num_nodes":"7","size_leaf_vector":"1"}},{"base_weights":[-4.761607E2,-1.5104164E5,1.5020836E5,-5.333333E4,-1.0624997E4,2.1250032E3,5.8666676E4],"categories":[],"categories_nodes":[],"categories_segments":[],"categories_sizes":[],"default_left":[0,0,0,0,0,0,0],"id":1,"left_children":[1,3,5,-1,-1,-1,-1],"loss_changes":[1.8150292E11,6.069158E9,2.457609E10,0E0,0E0,0E0,0E0],"parents":[2147483647,0,0,1,1,2,2],"right_children":[2,4,6,-1,-1,-1,-1],"split_conditions":[1E0,2.1E1,2.1E1,-5.333333E4,-1.0624997E4,2.1250032E3,5.8666676E4],"split_indices":[1,0,0,0,0,0,0],"split_type":[0,0,0,0,0,0,0],"sum_hessian":[6E0,3E0,3E0,2E0,1E0,1E0,2E0],"tree_param":{"num_deleted":"0","num_feature":"4","num_nodes":"7","size_leaf_vector":"1"}},{"base_weights":[-7.856964E2,-1.21718734E5,1.20343766E5,-4.2666664E4,-9.031247E3,3.2236125E4,5.7700004E4,1.8062532E3,1.2700004E4],"categories":[],"categories_nodes":[],"categories_segments":[],"categories_sizes":[],"default_left":[0,0,0,0,0,0,0,0,0],"id":2,"left_children":[1,3,5,-1,-1,7,-1,-1,-1],"loss_changes":[1.1718797E11,3.2321905E9,1.917125E10,0E0,0E0,5.3922176E8,0E0,0E0,0E0],"parents":[2147483647,0,0,1,1,2,2,5,5],"right_children":[2,4,6,-1,-1,8,-1,-1,-1],"split_conditions":[1E0,2.1E1,2.8E1,-4.2666664E4,-9.031247E3,2.1E1,5.7700004E4,1.8062532E3,1.2700004E4],"split_indices":[1,0,0,0,0,0,0,0,0],"split_type":[0,0,0,0,0,0,0,0,0],"sum_hessian":[6E0,3E0,3E0,2E0,1E0,2E0,1E0,1E0,1E0],"tree_param":{"num_deleted":"0","num_feature":"4","num_nodes":"9","size_leaf_vector":"1"}},{"base_weights":[2.3797769E3,-9.812758E4,1.0229219E5,-3.413333E4,-7.6765596E3,2.7400709E4,4.9044996E4,1.5353157E3,1.0795004E4],"categories":[],"categories_nodes":[],"categories_segments":[],"categories_sizes":[],"default_left":[0,0,0,0,0,0,0,0,0],"id":3,"left_children":[1,3,5,-1,-1,7,-1,-1,-1],"loss_changes":[8.033121E10,1.6295895E9,1.3851214E10,0E0,0E0,3.8958797E8,0E0,0E0,0E0],"parents":[2147483647,0,0,1,1,2,2,5,5],"right_children":[2,4,6,-1,-1,8,-1,-1,-1],"split_conditions":[1E0,2.1E1,2.8E1,-3.413333E4,-7.6765596E3,2.1E1,4.9044996E4,1.5353157E3,1.0795004E4],"split_indices":[1,0,0,0,0,0,0,0,0],"split_type":[0,0,0,0,0,0,0,0,0],"sum_hessian":[6E0,3E0,3E0,2E0,1E0,2E0,1E0,1E0,1E0],"tree_param":{"num_deleted":"0","num_feature":"4","num_nodes":"9","size_leaf_vector":"1"}},{"base_weights":[4.460902E3,-7.914178E4,8.694836E4,-2.7306664E4,-6.525075E3,2.3290604E4,4.1688246E4,1.3050188E3,9.175754E3],"categories":[],"categories_nodes":[],"categories_segments":[],"categories_sizes":[],"default_left":[0,0,0,0,0,0,0,0,0],"id":4,"left_children":[1,3,5,-1,-1,7,-1,-1,-1],"loss_changes":[5.515446E10,7.475876E8,1.0007501E10,0E0,0E0,2.8147712E8,0E0,0E0,0E0],"parents":[2147483647,0,0,1,1,2,2,5,5],"right_children":[2,4,6,-1,-1,8,-1,-1,-1],"split_conditions":[1E0,2.1E1,2.8E1,-2.7306664E4,-6.525075E3,2.1E1,4.1688246E4,1.3050188E3,9.175754E3],"split_indices":[1,0,0,0,0,0,0,0,0],"split_type":[0,0,0,0,0,0,0,0,0],"sum_hessian":[6E0,3E0,3E0,2E0,1E0,2E0,1E0,1E0,1E0],"tree_param":{"num_deleted":"0","num_feature":"4","num_nodes":"9","size_leaf_vector":"1"}},{"base_weights":[5.74225E3,-6.385717E4,7.390611E4,-2.1845326E4,-5.546316E3,1.9797021E4,3.5435008E4,1.1092688E3,7.799391E3],"categories":[],"categories_nodes":[],"categories_segments":[],"categories_sizes":[],"default_left":[0,0,0,0,0,0,0,0,0],"id":5,"left_children":[1,3,5,-1,-1,7,-1,-1,-1],"loss_changes":[3.792859E10,2.7991245E8,7.230419E9,0E0,0E0,2.0336653E8,0E0,0E0,0E0],"parents":[2147483647,0,0,1,1,2,2,5,5],"right_children":[2,4,6,-1,-1,8,-1,-1,-1],"split_conditions":[1E0,2.1E1,2.8E1,-2.1845326E4,-5.546316E3,2.1E1,3.5435008E4,1.1092688E3,7.799391E3],"split_indices":[1,0,0,0,0,0,0,0,0],"split_type":[0,0,0,0,0,0,0,0,0],"sum_hessian":[6E0,3E0,3E0,2E0,1E0,2E0,1E0,1E0,1E0],"tree_param":{"num_deleted":"0","num_feature":"4","num_nodes":"9","size_leaf_vector":"1"}},{"base_weights":[6.4412856E3,-5.1547938E4,6.2820188E4,-2.0607197E4,-6.881044E3,1.6827459E4,3.0119758E4,9.428813E2,6.629475E3],"categories":[],"categories_nodes":[],"categories_segments":[],"categories_sizes":[],"default_left":[0,0,0,0,0,0,0,0,0],"id":6,"left_children":[1,3,5,-1,-1,7,-1,-1,-1],"loss_changes":[2.6123833E10,3.8634496E8,5.22398E9,0E0,0E0,1.4693126E8,0E0,0E0,0E0],"parents":[2147483647,0,0,1,1,2,2,5,5],"right_children":[2,4,6,-1,-1,8,-1,-1,-1],"split_conditions":[1E0,1.4E1,2.8E1,-2.0607197E4,-6.881044E3,2.1E1,3.0119758E4,9.428813E2,6.629475E3],"split_indices":[1,0,0,0,0,0,0,0,0],"split_type":[0,0,0,0,0,0,0,0,0],"sum_hessian":[6E0,3E0,3E0,1E0,2E0,2E0,1E0,1E0,1E0],"tree_param":{"num_deleted":"0","num_feature":"4","num_nodes":"9","size_leaf_vector":"1"}},{"base_weights":[5.966598E3,-4.295561E4,5.3397156E4,-1.751612E4,-5.5048315E3,1.4303333E4,2.5601795E4,8.0145E2,5.6350503E3],"categories":[],"categories_nodes":[],"categories_segments":[],"categories_sizes":[],"default_left":[0,0,0,0,0,0,0,0,0],"id":7,"left_children":[1,3,5,-1,-1,7,-1,-1,-1],"loss_changes":[1.853656E10,4.47466E8,3.7743268E9,0E0,0E0,1.0615757E8,0E0,0E0,0E0],"parents":[2147483647,0,0,1,1,2,2,5,5],"right_children":[2,4,6,-1,-1,8,-1,-1,-1],"split_conditions":[1E0,1.4E1,2.8E1,-1.751612E4,-5.5048315E3,2.1E1,2.5601795E4,8.0145E2,5.6350503E3],"split_indices":[1,0,0,0,0,0,0,0,0],"split_type":[0,0,0,0,0,0,0,0,0],"sum_hessian":[6E0,3E0,3E0,1E0,2E0,2E0,1E0,1E0,1E0],"tree_param":{"num_deleted":"0","num_feature":"4","num_nodes":"9","size_leaf_vector":"1"}},{"base_weights":[5.4648213E3,-3.582417E4,4.538761E4,-1.48887E4,-4.403869E3,1.21578545E4,2.1761531E4,6.812344E2,4.7898003E3],"categories":[],"categories_nodes":[],"categories_segments":[],"categories_sizes":[],"default_left":[0,0,0,0,0,0,0,0,0],"id":8,"left_children":[1,3,5,-1,-1,7,-1,-1,-1],"loss_changes":[1.3164576E10,4.3905894E8,2.72695E9,0E0,0E0,7.669894E7,0E0,0E0,0E0],"parents":[2147483647,0,0,1,1,2,2,5,5],"right_children":[2,4,6,-1,-1,8,-1,-1,-1],"split_conditions":[1E0,1.4E1,2.8E1,-1.48887E4,-4.403869E3,2.1E1,2.1761531E4,6.812344E2,4.7898003E3],"split_indices":[1,0,0,0,0,0,0,0,0],"split_type":[0,0,0,0,0,0,0,0,0],"sum_hessian":[6E0,3E0,3E0,1E0,2E0,2E0,1E0,1E0,1E0],"tree_param":{"num_deleted":"0","num_feature":"4","num_nodes":"9","size_leaf_vector":"1"}},{"base_weights":[4.9596694E3,-2.9900062E4,3.8579484E4,-1.2655397E4,-3.5230938E3,1.03341875E4,1.8497307E4,5.790469E2,4.0713376E3],"categories":[],"categories_nodes":[],"categories_segments":[],"categories_sizes":[],"default_left":[0,0,0,0,0,0,0,0,0],"id":9,"left_children":[1,3,5,-1,-1,7,-1,-1,-1],"loss_changes":[9.357372E9,3.9677517E8,1.970221E9,0E0,0E0,5.5415584E7,0E0,0E0,0E0],"parents":[2147483647,0,0,1,1,2,2,5,5],"right_children":[2,4,6,-1,-1,8,-1,-1,-1],"split_conditions":[1E0,1.4E1,2.8E1,-1.2655397E4,-3.5230938E3,2.1E1,1.8497307E4,5.790469E2,4.0713376E3],"split_indices":[1,0,0,0,0,0,0,0,0],"split_type":[0,0,0,0,0,0,0,0,0],"sum_hessian":[6E0,3E0,3E0,1E0,2E0,2E0,1E0,1E0,1E0],"tree_param":{"num_deleted":"0","num_feature":"4","num_nodes":"9","size_leaf_vector":"1"}},{"base_weights":[4.467366E3,-2.4974672E4,3.2792562E4,-1.0757091E4,-2.818475E3,8.784042E3,1.572272E4,4.9218753E2,3.4606313E3],"categories":[],"categories_nodes":[],"categories_segments":[],"categories_sizes":[],"default_left":[0,0,0,0,0,0,0,0,0],"id":10,"left_children":[1,3,5,-1,-1,7,-1,-1,-1],"loss_changes":[6.6566436E9,3.41301E8,1.423489E9,0E0,0E0,4.0037776E7,0E0,0E0,0E0],"parents":[2147483647,0,0,1,1,2,2,5,5],"right_children":[2,4,6,-1,-1,8,-1,-1,-1],"split_conditions":[1E0,1.4E1,2.8E1,-1.0757091E4,-2.818475E3,2.1E1,1.572272E4,4.9218753E2,3.4606313E3],"split_indices":[1,0,0,0,0,0,0,0,0],"split_type":[0,0,0,0,0,0,0,0,0],"sum_hessian":[6E0,3E0,3E0,1E0,2E0,2E0,1E0,1E0,1E0],"tree_param":{"num_deleted":"0","num_feature":"4","num_nodes":"9","size_leaf_vector":"1"}},{"base_weights":[3.9985803E3,-2.0876156E4,2.7873672E4,-9.143531E3,-2.2547751E3,7.4664375E3,1.3364307E4,4.183594E2,2.9415376E3],"categories":[],"categories_nodes":[],"categories_segments":[],"categories_sizes":[],"default_left":[0,0,0,0,0,0,0,0,0],"id":11,"left_children":[1,3,5,-1,-1,7,-1,-1,-1],"loss_changes":[4.739101E9,2.840818E8,1.02846976E9,0E0,0E0,2.8927328E7,0E0,0E0,0E0],"parents":[2147483647,0,0,1,1,2,2,5,5],"right_children":[2,4,6,-1,-1,8,-1,-1,-1],"split_conditions":[1E0,1.4E1,2.8E1,-9.143531E3,-2.2547751E3,2.1E1,1.3364307E4,4.183594E2,2.9415376E3],"split_indices":[1,0,0,0,0,0,0,0,0],"split_type":[0,0,0,0,0,0,0,0,0],"sum_hessian":[6E0,3E0,3E0,1E0,2E0,2E0,1E0,1E0,1E0],"tree_param":{"num_deleted":"0","num_feature":"4","num_nodes":"9","size_leaf_vector":"1"}},{"base_weights":[3.5598481E3,-1.7462906E4,2.369264E4,-7.7720063E3,-1.8038251E3,6.346479E3,1.1359669E4,3.5560315E2,2.5003125E3],"categories":[],"categories_nodes":[],"categories_segments":[],"categories_sizes":[],"default_left":[0,0,0,0,0,0,0,0,0],"id":12,"left_children":[1,3,5,-1,-1,7,-1,-1,-1],"loss_changes":[3.3764698E9,2.3096013E8,7.4306995E8,0E0,0E0,2.0900296E7,0E0,0E0,0E0],"parents":[2147483647,0,0,1,1,2,2,5,5],"right_children":[2,4,6,-1,-1,8,-1,-1,-1],"split_conditions":[1E0,1.4E1,2.8E1,-7.7720063E3,-1.8038251E3,2.1E1,1.1359669E4,3.5560315E2,2.5003125E3],"split_indices":[1,0,0,0,0,0,0,0,0],"split_type":[0,0,0,0,0,0,0,0,0],"sum_hessian":[6E0,3E0,3E0,1E0,2E0,2E0,1E0,1E0,1E0],"tree_param":{"num_deleted":"0","num_feature":"4","num_nodes":"9","size_leaf_vector":"1"}},{"base_weights":[3.1547231E3,-1.4618E4,2.0138766E4,-6.6062065E3,-1.4430626E3,5.394521E3,9.655726E3,3.022594E2,2.1252751E3],"categories":[],"categories_nodes":[],"categories_segments":[],"categories_sizes":[],"default_left":[0,0,0,0,0,0,0,0,0],"id":13,"left_children":[1,3,5,-1,-1,7,-1,-1,-1],"loss_changes":[2.4073572E9,1.8449203E8,5.3686797E8,0E0,0E0,1.5100872E7,0E0,0E0,0E0],"parents":[2147483647,0,0,1,1,2,2,5,5],"right_children":[2,4,6,-1,-1,8,-1,-1,-1],"split_conditions":[1E0,1.4E1,2.8E1,-6.6062065E3,-1.4430626E3,2.1E1,9.655726E3,3.022594E2,2.1252751E3],"split_indices":[1,0,0,0,0,0,0,0,0],"split_type":[0,0,0,0,0,0,0,0,0],"sum_hessian":[6E0,3E0,3E0,1E0,2E0,2E0,1E0,1E0,1E0],"tree_param":{"num_deleted":"0","num_feature":"4","num_nodes":"9","size_leaf_vector":"1"}},{"base_weights":[2.7845894E3,-1.2244922E4,1.7117953E4,-5.6152783E3,-1.1544501E3,4.585354E3,8.207363E3,2.5692188E2,1.8064875E3],"categories":[],"categories_nodes":[],"categories_segments":[],"categories_sizes":[],"default_left":[0,0,0,0,0,0,0,0,0],"id":14,"left_children":[1,3,5,-1,-1,7,-1,-1,-1],"loss_changes":[1.7175722E9,1.4536934E8,3.8788582E8,0E0,0E0,1.0910384E7,0E0,0E0,0E0],"parents":[2147483647,0,0,1,1,2,2,5,5],"right_children":[2,4,6,-1,-1,8,-1,-1,-1],"split_conditions":[1E0,1.4E1,2.8E1,-5.6152783E3,-1.1544501E3,2.1E1,8.207363E3,2.5692188E2,1.8064875E3],"split_indices":[1,0,0,0,0,0,0,0,0],"split_type":[0,0,0,0,0,0,0,0,0],"sum_hessian":[6E0,3E0,3E0,1E0,2E0,2E0,1E0,1E0,1E0],"tree_param":{"num_deleted":"0","num_feature":"4","num_nodes":"9","size_leaf_vector":"1"}},{"base_weights":[2.4493481E3,-1.0263891E4,1.455025E4,-4.7729907E3,-3.0785417E3,3.8975417E3,6.9762563E3,-1.1390907E3,-2.4625313E2,2.1838126E2,1.5355126E3],"categories":[],"categories_nodes":[],"categories_segments":[],"categories_sizes":[],"default_left":[0,0,0,0,0,0,0,0,0,0,0],"id":15,"left_children":[1,3,5,-1,7,9,-1,-1,-1,-1,-1],"loss_changes":[1.2262337E9,1.1329667E8,2.8024787E8,0E0,1.749256E6,7.88282E6,0E0,0E0,0E0,0E0,0E0],"parents":[2147483647,0,0,1,1,2,2,4,4,5,5],"right_children":[2,4,6,-1,8,10,-1,-1,-1,-1,-1],"split_conditions":[1E0,1.4E1,2.8E1,-4.7729907E3,2.1E1,2.1E1,6.9762563E3,-1.1390907E3,-2.4625313E2,2.1838126E2,1.5355126E3],"split_indices":[1,0,0,0,0,0,0,0,0,0,0],"split_type":[0,0,0,0,0,0,0,0,0,0,0],"sum_hessian":[6E0,3E0,3E0,1E0,2E0,2E0,1E0,1E0,1E0,1E0,1E0],"tree_param":{"num_deleted":"0","num_feature":"4","num_nodes":"11","size_leaf_vector":"1"}},{"base_weights":[2.0819465E3,-8.7243125E3,1.2367719E4,-4.0570408E3,-2.6167708E3,3.3129167E3,5.929819E3,-9.6823126E2,-2.0931563E2,1.85625E2,1.3051875E3],"categories":[],"categories_nodes":[],"categories_segments":[],"categories_sizes":[],"default_left":[0,0,0,0,0,0,0,0,0,0,0],"id":16,"left_children":[1,3,5,-1,7,9,-1,-1,-1,-1,-1],"loss_changes":[8.859549E8,8.185635E7,2.0247885E8,0E0,1.263858E6,5.69533E6,0E0,0E0,0E0,0E0,0E0],"parents":[2147483647,0,0,1,1,2,2,4,4,5,5],"right_children":[2,4,6,-1,8,10,-1,-1,-1,-1,-1],"split_conditions":[1E0,1.4E1,2.8E1,-4.0570408E3,2.1E1,2.1E1,5.929819E3,-9.6823126E2,-2.0931563E2,1.85625E2,1.3051875E3],"split_indices":[1,0,0,0,0,0,0,0,0,0,0],"split_type":[0,0,0,0,0,0,0,0,0,0,0],"sum_hessian":[6E0,3E0,3E0,1E0,2E0,2E0,1E0,1E0,1E0,1E0,1E0],"tree_param":{"num_deleted":"0","num_feature":"4","num_nodes":"11","size_leaf_vector":"1"}},{"base_weights":[1.7696384E3,-7.415664E3,1.0512531E4,-3.448486E3,-2.22425E3,2.8159583E3,5.040338E3,-8.229938E2,-1.7791876E2,1.5778125E2,1.1094E3],"categories":[],"categories_nodes":[],"categories_segments":[],"categories_sizes":[],"default_left":[0,0,0,0,0,0,0,0,0,0,0],"id":17,"left_children":[1,3,5,-1,7,9,-1,-1,-1,-1,-1],"loss_changes":[6.4010016E8,5.914147E7,1.462912E8,0E0,9.13109E5,4.114764E6,0E0,0E0,0E0,0E0,0E0],"parents":[2147483647,0,0,1,1,2,2,4,4,5,5],"right_children":[2,4,6,-1,8,10,-1,-1,-1,-1,-1],"split_conditions":[1E0,1.4E1,2.8E1,-3.448486E3,2.1E1,2.1E1,5.040338E3,-8.229938E2,-1.7791876E2,1.5778125E2,1.1094E3],"split_indices":[1,0,0,0,0,0,0,0,0,0,0],"split_type":[0,0,0,0,0,0,0,0,0,0,0],"sum_hessian":[6E0,3E0,3E0,1E0,2E0,2E0,1E0,1E0,1E0,1E0,1E0],"tree_param":{"num_deleted":"0","num_feature":"4","num_nodes":"11","size_leaf_vector":"1"}},{"base_weights":[1.5042009E3,-6.3033047E3,8.935656E3,-2.931211E3,-1.8906041E3,2.3935833E3,4.2842812E3,-6.9954376E2,-1.5122813E2,1.3411876E2,9.429938E2],"categories":[],"categories_nodes":[],"categories_segments":[],"categories_sizes":[],"default_left":[0,0,0,0,0,0,0,0,0,0,0],"id":18,"left_children":[1,3,5,-1,7,9,-1,-1,-1,-1,-1],"loss_changes":[4.6247206E8,4.272984E7,1.0569424E8,0E0,6.59767E5,2.972832E6,0E0,0E0,0E0,0E0,0E0],"parents":[2147483647,0,0,1,1,2,2,4,4,5,5],"right_children":[2,4,6,-1,8,10,-1,-1,-1,-1,-1],"split_conditions":[1E0,1.4E1,2.8E1,-2.931211E3,2.1E1,2.1E1,4.2842812E3,-6.9954376E2,-1.5122813E2,1.3411876E2,9.429938E2],"split_indices":[1,0,0,0,0,0,0,0,0,0,0],"split_type":[0,0,0,0,0,0,0,0,0,0,0],"sum_hessian":[6E0,3E0,3E0,1E0,2E0,2E0,1E0,1E0,1E0,1E0,1E0],"tree_param":{"num_deleted":"0","num_feature":"4","num_nodes":"11","size_leaf_vector":"1"}},{"base_weights":[1.2785803E3,-5.357797E3,7.5953125E3,-2.4915283E3,-1.607E3,2.0345416E3,3.6416438E3,-5.946094E2,-1.2854063E2,1.1400001E2,8.0154376E2],"categories":[],"categories_nodes":[],"categories_segments":[],"categories_sizes":[],"default_left":[0,0,0,0,0,0,0,0,0,0,0],"id":19,"left_children":[1,3,5,-1,7,9,-1,-1,-1,-1,-1],"loss_changes":[3.3413568E8,3.087256E7,7.636453E7,0E0,4.767205E5,2.147884E6,0E0,0E0,0E0,0E0,0E0],"parents":[2147483647,0,0,1,1,2,2,4,4,5,5],"right_children":[2,4,6,-1,8,10,-1,-1,-1,-1,-1],"split_conditions":[1E0,1.4E1,2.8E1,-2.4915283E3,2.1E1,2.1E1,3.6416438E3,-5.946094E2,-1.2854063E2,1.1400001E2,8.0154376E2],"split_indices":[1,0,0,0,0,0,0,0,0,0,0],"split_type":[0,0,0,0,0,0,0,0,0,0,0],"sum_hessian":[6E0,3E0,3E0,1E0,2E0,2E0,1E0,1E0,1E0,1E0,1E0],"tree_param":{"num_deleted":"0","num_feature":"4","num_nodes":"11","size_leaf_vector":"1"}},{"base_weights":[1.086808E3,-4.554117E3,6.4560312E3,-2.1177986E3,-1.3659375E3,1.729375E3,3.0954001E3,-5.0541565E2,-1.09256256E2,9.69E1,6.813188E2],"categories":[],"categories_nodes":[],"categories_segments":[],"categories_sizes":[],"default_left":[0,0,0,0,0,0,0,0,0,0,0],"id":20,"left_children":[1,3,5,-1,7,9,-1,-1,-1,-1,-1],"loss_changes":[2.4141323E8,2.2305648E7,5.517309E7,0E0,3.444635E5,1.551894E6,0E0,0E0,0E0,0E0,0E0],"parents":[2147483647,0,0,1,1,2,2,4,4,5,5],"right_children":[2,4,6,-1,8,10,-1,-1,-1,-1,-1],"split_conditions":[1E0,1.4E1,2.8E1,-2.1177986E3,2.1E1,2.1E1,3.0954001E3,-5.0541565E2,-1.09256256E2,9.69E1,6.813188E2],"split_indices":[1,0,0,0,0,0,0,0,0,0,0],"split_type":[0,0,0,0,0,0,0,0,0,0,0],"sum_hessian":[6E0,3E0,3E0,1E0,2E0,2E0,1E0,1E0,1E0,1E0,1E0],"tree_param":{"num_deleted":"0","num_feature":"4","num_nodes":"11","size_leaf_vector":"1"}},{"base_weights":[9.2379016E2,-3.8709922E3,5.487625E3,-1.8001266E3,-1.1610416E3,1.4699584E3,2.6310938E3,-4.296E2,-9.286875E1,8.236875E1,5.7911255E2],"categories":[],"categories_nodes":[],"categories_segments":[],"categories_sizes":[],"default_left":[0,0,0,0,0,0,0,0,0,0,0],"id":21,"left_children":[1,3,5,-1,7,9,-1,-1,-1,-1,-1],"loss_changes":[1.7442072E8,1.611586E7,3.986299E7,0E0,2.4885275E5,1.121132E6,0E0,0E0,0E0,0E0,0E0],"parents":[2147483647,0,0,1,1,2,2,4,4,5,5],"right_children":[2,4,6,-1,8,10,-1,-1,-1,-1,-1],"split_conditions":[1E0,1.4E1,2.8E1,-1.8001266E3,2.1E1,2.1E1,2.6310938E3,-4.296E2,-9.286875E1,8.236875E1,5.7911255E2],"split_indices":[1,0,0,0,0,0,0,0,0,0,0],"split_type":[0,0,0,0,0,0,0,0,0,0,0],"sum_hessian":[6E0,3E0,3E0,1E0,2E0,2E0,1E0,1E0,1E0,1E0,1E0],"tree_param":{"num_deleted":"0","num_feature":"4","num_nodes":"11","size_leaf_vector":"1"}},{"base_weights":[7.8521875E2,-3.290336E3,4.6644688E3,-1.5301079E3,-9.86875E2,1.2494584E3,2.236425E3,-3.6515625E2,-7.89375E1,7.0012505E1,4.9224377E2],"categories":[],"categories_nodes":[],"categories_segments":[],"categories_sizes":[],"default_left":[0,0,0,0,0,0,0,0,0,0,0],"id":22,"left_children":[1,3,5,-1,7,9,-1,-1,-1,-1,-1],"loss_changes":[1.26018344E8,1.1643856E7,2.880096E7,0E0,1.797935E5,8.10021E5,0E0,0E0,0E0,0E0,0E0],"parents":[2147483647,0,0,1,1,2,2,4,4,5,5],"right_children":[2,4,6,-1,8,10,-1,-1,-1,-1,-1],"split_conditions":[1E0,1.4E1,2.8E1,-1.5301079E3,2.1E1,2.1E1,2.236425E3,-3.6515625E2,-7.89375E1,7.0012505E1,4.9224377E2],"split_indices":[1,0,0,0,0,0,0,0,0,0,0],"split_type":[0,0,0,0,0,0,0,0,0,0,0],"sum_hessian":[6E0,3E0,3E0,1E0,2E0,2E0,1E0,1E0,1E0,1E0,1E0],"tree_param":{"num_deleted":"0","num_feature":"4","num_nodes":"11","size_leaf_vector":"1"}},{"base_weights":[6.674375E2,-2.7967969E3,3.9648125E3,-1.3005938E3,-8.388542E2,1.0620416E3,1.9009689E3,-3.103875E2,-6.709688E1,5.95125E1,4.1840628E2],"categories":[],"categories_nodes":[],"categories_segments":[],"categories_sizes":[],"default_left":[0,0,0,0,0,0,0,0,0,0,0],"id":23,"left_children":[1,3,5,-1,7,9,-1,-1,-1,-1,-1],"loss_changes":[9.1048936E7,8.412604E6,2.0808896E7,0E0,1.29913E5,5.85214E5,0E0,0E0,0E0,0E0,0E0],"parents":[2147483647,0,0,1,1,2,2,4,4,5,5],"right_children":[2,4,6,-1,8,10,-1,-1,-1,-1,-1],"split_conditions":[1E0,1.4E1,2.8E1,-1.3005938E3,2.1E1,2.1E1,1.9009689E3,-3.103875E2,-6.709688E1,5.95125E1,4.1840628E2],"split_indices":[1,0,0,0,0,0,0,0,0,0,0],"split_type":[0,0,0,0,0,0,0,0,0,0,0],"sum_hessian":[6E0,3E0,3E0,1E0,2E0,2E0,1E0,1E0,1E0,1E0,1E0],"tree_param":{"num_deleted":"0","num_feature":"4","num_nodes":"11","size_leaf_vector":"1"}},{"base_weights":[5.6732587E2,-2.3772734E3,3.3700938E3,-1.1055048E3,-7.130208E2,9.0275E2,1.6158188E3,-2.6383127E2,-5.7028126E1,5.05875E1,3.5565002E2],"categories":[],"categories_nodes":[],"categories_segments":[],"categories_sizes":[],"default_left":[0,0,0,0,0,0,0,0,0,0,0],"id":24,"left_children":[1,3,5,-1,7,9,-1,-1,-1,-1,-1],"loss_changes":[6.5782828E7,6.07816E6,1.5034084E7,0E0,9.389575E4,4.228165E5,0E0,0E0,0E0,0E0,0E0],"parents":[2147483647,0,0,1,1,2,2,4,4,5,5],"right_children":[2,4,6,-1,8,10,-1,-1,-1,-1,-1],"split_conditions":[1E0,1.4E1,2.8E1,-1.1055048E3,2.1E1,2.1E1,1.6158188E3,-2.6383127E2,-5.7028126E1,5.05875E1,3.5565002E2],"split_indices":[1,0,0,0,0,0,0,0,0,0,0],"split_type":[0,0,0,0,0,0,0,0,0,0,0],"sum_hessian":[6E0,3E0,3E0,1E0,2E0,2E0,1E0,1E0,1E0,1E0,1E0],"tree_param":{"num_deleted":"0","num_feature":"4","num_nodes":"11","size_leaf_vector":"1"}},{"base_weights":[4.8221875E2,-2.0206953E3,2.8645781E3,-9.3967975E2,-6.060833E2,7.673542E2,1.3734375E3,-2.2425938E2,-4.8478127E1,4.3003128E1,3.0230627E2],"categories":[],"categories_nodes":[],"categories_segments":[],"categories_sizes":[],"default_left":[0,0,0,0,0,0,0,0,0,0,0],"id":25,"left_children":[1,3,5,-1,7,9,-1,-1,-1,-1,-1],"loss_changes":[4.752833E7,4.39135E6,1.086172E7,0E0,6.7820125E4,3.0546575E5,0E0,0E0,0E0,0E0,0E0],"parents":[2147483647,0,0,1,1,2,2,4,4,5,5],"right_children":[2,4,6,-1,8,10,-1,-1,-1,-1,-1],"split_conditions":[1E0,1.4E1,2.8E1,-9.3967975E2,2.1E1,2.1E1,1.3734375E3,-2.2425938E2,-4.8478127E1,4.3003128E1,3.0230627E2],"split_indices":[1,0,0,0,0,0,0,0,0,0,0],"split_type":[0,0,0,0,0,0,0,0,0,0,0],"sum_hessian":[6E0,3E0,3E0,1E0,2E0,2E0,1E0,1E0,1E0,1E0,1E0],"tree_param":{"num_deleted":"0","num_feature":"4","num_nodes":"11","size_leaf_vector":"1"}},{"base_weights":[4.098884E2,-1.7175859E3,2.4348906E3,-7.987266E2,-5.151667E2,6.522708E2,1.1674126E3,-1.9062189E2,-4.1203125E1,3.6553127E1,2.5696875E2],"categories":[],"categories_nodes":[],"categories_segments":[],"categories_sizes":[],"default_left":[0,0,0,0,0,0,0,0,0,0,0],"id":26,"left_children":[1,3,5,-1,7,9,-1,-1,-1,-1,-1],"loss_changes":[3.4339116E7,3.172764E6,7.8472E6,0E0,4.901875E4,2.2071862E5,0E0,0E0,0E0,0E0,0E0],"parents":[2147483647,0,0,1,1,2,2,4,4,5,5],"right_children":[2,4,6,-1,8,10,-1,-1,-1,-1,-1],"split_conditions":[1E0,1.4E1,2.8E1,-7.987266E2,2.1E1,2.1E1,1.1674126E3,-1.9062189E2,-4.1203125E1,3.6553127E1,2.5696875E2],"split_indices":[1,0,0,0,0,0,0,0,0,0,0],"split_type":[0,0,0,0,0,0,0,0,0,0,0],"sum_hessian":[6E0,3E0,3E0,1E0,2E0,2E0,1E0,1E0,1E0,1E0,1E0],"tree_param":{"num_deleted":"0","num_feature":"4","num_nodes":"11","size_leaf_vector":"1"}},{"base_weights":[3.484018E2,-1.4599531E3,2.0696562E3,-6.7891876E2,-4.3789584E2,5.544167E2,9.923063E2,-1.6202814E2,-3.5025E1,3.106875E1,2.1841876E2],"categories":[],"categories_nodes":[],"categories_segments":[],"categories_sizes":[],"default_left":[0,0,0,0,0,0,0,0,0,0,0],"id":27,"left_children":[1,3,5,-1,7,9,-1,-1,-1,-1,-1],"loss_changes":[2.4810074E7,2.292309E6,5.66982E6,0E0,3.5405312E4,1.5946688E5,0E0,0E0,0E0,0E0,0E0],"parents":[2147483647,0,0,1,1,2,2,4,4,5,5],"right_children":[2,4,6,-1,8,10,-1,-1,-1,-1,-1],"split_conditions":[1E0,1.4E1,2.8E1,-6.7891876E2,2.1E1,2.1E1,9.923063E2,-1.6202814E2,-3.5025E1,3.106875E1,2.1841876E2],"split_indices":[1,0,0,0,0,0,0,0,0,0,0],"split_type":[0,0,0,0,0,0,0,0,0,0,0],"sum_hessian":[6E0,3E0,3E0,1E0,2E0,2E0,1E0,1E0,1E0,1E0,1E0],"tree_param":{"num_deleted":"0","num_feature":"4","num_nodes":"11","size_leaf_vector":"1"}},{"base_weights":[2.961473E2,-1.2409766E3,1.7592344E3,-5.770828E2,-3.7222916E2,4.7127084E2,8.434688E2,-1.3772813E2,-2.9775002E1,2.6409376E1,1.856625E2],"categories":[],"categories_nodes":[],"categories_segments":[],"categories_sizes":[],"default_left":[0,0,0,0,0,0,0,0,0,0,0],"id":28,"left_children":[1,3,5,-1,7,9,-1,-1,-1,-1,-1],"loss_changes":[1.7925792E7,1.656118E6,4.096434E6,0E0,2.5571625E4,1.1522294E5,0E0,0E0,0E0,0E0,0E0],"parents":[2147483647,0,0,1,1,2,2,4,4,5,5],"right_children":[2,4,6,-1,8,10,-1,-1,-1,-1,-1],"split_conditions":[1E0,1.4E1,2.8E1,-5.770828E2,2.1E1,2.1E1,8.434688E2,-1.3772813E2,-2.9775002E1,2.6409376E1,1.856625E2],"split_indices":[1,0,0,0,0,0,0,0,0,0,0],"split_type":[0,0,0,0,0,0,0,0,0,0,0],"sum_hessian":[6E0,3E0,3E0,1E0,2E0,2E0,1E0,1E0,1E0,1E0,1E0],"tree_param":{"num_deleted":"0","num_feature":"4","num_nodes":"11","size_leaf_vector":"1"}},{"base_weights":[2.5172322E2,-1.0548281E3,1.4953438E3,-4.9051877E2,-3.1639584E2,4.0058334E2,7.169438E2,-1.1706563E2,-2.5312502E1,2.244375E1,1.5781876E2],"categories":[],"categories_nodes":[],"categories_segments":[],"categories_sizes":[],"default_left":[0,0,0,0,0,0,0,0,0,0,0],"id":29,"left_children":[1,3,5,-1,7,9,-1,-1,-1,-1,-1],"loss_changes":[1.295131E7,1.1965285E6,2.959597E6,0E0,1.8460656E4,8.327631E4,0E0,0E0,0E0,0E0,0E0],"parents":[2147483647,0,0,1,1,2,2,4,4,5,5],"right_children":[2,4,6,-1,8,10,-1,-1,-1,-1,-1],"split_conditions":[1E0,1.4E1,2.8E1,-4.9051877E2,2.1E1,2.1E1,7.169438E2,-1.1706563E2,-2.5312502E1,2.244375E1,1.5781876E2],"split_indices":[1,0,0,0,0,0,0,0,0,0,0],"split_type":[0,0,0,0,0,0,0,0,0,0,0],"sum_hessian":[6E0,3E0,3E0,1E0,2E0,2E0,1E0,1E0,1E0,1E0,1E0],"tree_param":{"num_deleted":"0","num_feature":"4","num_nodes":"11","size_leaf_vector":"1"}}]},"name":"gbtree"},"learner_model_param":{"base_score":"8.833333E5","boost_from_average":"1","num_class":"0","num_feature":"4","num_target":"1"},"objective":{"name":"reg:squarederror","reg_loss_param":{"scale_pos_weight":"1"}}},"version":[2,0,3]}